<?xml version="1.0"?>
<opencv_storage>
<cascade>
  <stageType>BOOST</stageType>
  <featureType>HAAR</featureType>
  <height>20</height>
  <width>20</width>
  <stageParams>
    <boostType>GAB</boostType>
    <minHitRate>9.9500000476837158e-01</minHitRate>
    <maxFalseAlarm>5.0000000000000000e-01</maxFalseAlarm>
    <weightTrimRate>9.4999999999999996e-01</weightTrimRate>
    <maxDepth>1</maxDepth>
    <maxWeakCount>100</maxWeakCount></stageParams>
  <featureParams>
    <maxCatCount>0</maxCatCount>
    <featSize>1</featSize>
    <mode>BASIC</mode></featureParams>
  <stageNum>8</stageNum>
  <stages>
    <!-- stage 0 -->
    <_>
      <maxWeakCount>2</maxWeakCount>
      <stageThreshold>-1.2456355988979340e-01</stageThreshold>
      <weakClassifiers>
        <_>
          <internalNodes>
            0 -1 3 -3.4151941537857056e-02</internalNodes>
          <leafValues>
            8.2162994146347046e-01 -9.3858480453491211e-01</leafValues></_>
        <_>
          <internalNodes>
            0 -1 0 9.7777787595987320e-03</internalNodes>
          <leafValues>
            -6.1074322462081909e-01 8.1402122974395752e-01</leafValues></_></weakClassifiers></_>
    <!-- stage 1 -->
    <_>
      <maxWeakCount>5</maxWeakCount>
      <stageThreshold>-9.2121666669845581e-01</stageThreshold>
      <weakClassifiers>
        <_>
          <internalNodes>
            0 -1 12 3.4527827054262161e-02</internalNodes>
          <leafValues>
            -7.2053462266921997e-01 7.9541820287704468e-01</leafValues></_>
        <_>
          <internalNodes>
            0 -1 11 -6.9649750366806984e-03</internalNodes>
          <leafValues>
            5.2530145645141602e-01 -9.7382825613021851e-01</leafValues></_>
        <_>
          <internalNodes>
            0 -1 13 -1.4936607331037521e-02</internalNodes>
          <leafValues>
            7.0323944091796875e-01 -6.1338722705841064e-01</leafValues></_>
        <_>
          <internalNodes>
            0 -1 20 2.1105790510773659e-02</internalNodes>
          <leafValues>
            -7.2480386495590210e-01 6.1797088384628296e-01</leafValues></_>
        <_>
          <internalNodes>
            0 -1 1 4.3884083628654480e-02</internalNodes>
          <leafValues>
            -6.2367564439773560e-01 6.1220753192901611e-01</leafValues></_></weakClassifiers></_>
    <!-- stage 2 -->
    <_>
      <maxWeakCount>3</maxWeakCount>
      <stageThreshold>-5.7525777816772461e-01</stageThreshold>
      <weakClassifiers>
        <_>
          <internalNodes>
            0 -1 17 -6.1648606788367033e-04</internalNodes>
          <leafValues>
            -8.8509875535964966e-01 6.5002334117889404e-01</leafValues></_>
        <_>
          <internalNodes>
            0 -1 5 -2.6683028787374496e-02</internalNodes>
          <leafValues>
            6.5984719991683960e-01 -6.7776370048522949e-01</leafValues></_>
        <_>
          <internalNodes>
            0 -1 6 1.3081490993499756e-02</internalNodes>
          <leafValues>
            -5.4751741886138916e-01 7.1918928623199463e-01</leafValues></_></weakClassifiers></_>
    <!-- stage 3 -->
    <_>
      <maxWeakCount>3</maxWeakCount>
      <stageThreshold>-6.4520800113677979e-01</stageThreshold>
      <weakClassifiers>
        <_>
          <internalNodes>
            0 -1 7 -1.2890987098217010e-02</internalNodes>
          <leafValues>
            6.6295266151428223e-01 -9.6703296899795532e-01</leafValues></_>
        <_>
          <internalNodes>
            0 -1 15 2.8512448072433472e-02</internalNodes>
          <leafValues>
            -6.3601475954055786e-01 7.2485542297363281e-01</leafValues></_>
        <_>
          <internalNodes>
            0 -1 22 1.7122164368629456e-02</internalNodes>
          <leafValues>
            -6.7214584350585938e-01 5.6850391626358032e-01</leafValues></_></weakClassifiers></_>
    <!-- stage 4 -->
    <_>
      <maxWeakCount>3</maxWeakCount>
      <stageThreshold>-6.4739930629730225e-01</stageThreshold>
      <weakClassifiers>
        <_>
          <internalNodes>
            0 -1 9 -2.9600940644741058e-02</internalNodes>
          <leafValues>
            -9.4186043739318848e-01 6.3461536169052124e-01</leafValues></_>
        <_>
          <internalNodes>
            0 -1 8 -1.6374923288822174e-02</internalNodes>
          <leafValues>
            6.4484709501266479e-01 -6.1213797330856323e-01</leafValues></_>
        <_>
          <internalNodes>
            0 -1 2 -2.0631276071071625e-01</internalNodes>
          <leafValues>
            5.8248162269592285e-01 -6.6987669467926025e-01</leafValues></_></weakClassifiers></_>
    <!-- stage 5 -->
    <_>
      <maxWeakCount>4</maxWeakCount>
      <stageThreshold>-4.8755025863647461e-01</stageThreshold>
      <weakClassifiers>
        <_>
          <internalNodes>
            0 -1 14 -2.6339683681726456e-03</internalNodes>
          <leafValues>
            6.4295548200607300e-01 -9.6161228418350220e-01</leafValues></_>
        <_>
          <internalNodes>
            0 -1 21 -4.8148982226848602e-02</internalNodes>
          <leafValues>
            5.4516828060150146e-01 -6.8993210792541504e-01</leafValues></_>
        <_>
          <internalNodes>
            0 -1 10 -7.5449839641805738e-05</internalNodes>
          <leafValues>
            -9.2961055040359497e-01 4.5543944835662842e-01</leafValues></_>
        <_>
          <internalNodes>
            0 -1 23 -1.3704822398722172e-02</internalNodes>
          <leafValues>
            8.4015810489654541e-01 -5.2654570341110229e-01</leafValues></_></weakClassifiers></_>
    <!-- stage 6 -->
    <_>
      <maxWeakCount>4</maxWeakCount>
      <stageThreshold>-5.5366629362106323e-01</stageThreshold>
      <weakClassifiers>
        <_>
          <internalNodes>
            0 -1 18 -3.6370414309203625e-03</internalNodes>
          <leafValues>
            6.1917805671691895e-01 -8.9411765336990356e-01</leafValues></_>
        <_>
          <internalNodes>
            0 -1 4 3.7630155682563782e-02</internalNodes>
          <leafValues>
            -5.8886826038360596e-01 6.3208317756652832e-01</leafValues></_>
        <_>
          <internalNodes>
            0 -1 16 -2.4843212217092514e-02</internalNodes>
          <leafValues>
            -8.7513935565948486e-01 3.9767700433731079e-01</leafValues></_>
        <_>
          <internalNodes>
            0 -1 19 -1.1234865523874760e-03</internalNodes>
          <leafValues>
            2.9116329550743103e-01 -9.5724713802337646e-01</leafValues></_></weakClassifiers></_>
    <!-- stage 7 -->
    <_>
      <maxWeakCount>1</maxWeakCount>
      <stageThreshold>6.4662688970565796e-01</stageThreshold>
      <weakClassifiers>
        <_>
          <internalNodes>
            0 -1 19 -9.0957088395953178e-03</internalNodes>
          <leafValues>
            -9.7696739435195923e-01 6.4662688970565796e-01</leafValues></_></weakClassifiers></_></stages>
  <features>
    <_>
      <rects>
        <_>
          0 1 2 14 -1.</_>
        <_>
          1 1 1 14 2.</_></rects>
      <tilted>0</tilted></_>
    <_>
      <rects>
        <_>
          0 4 6 15 -1.</_>
        <_>
          2 4 2 15 3.</_></rects>
      <tilted>0</tilted></_>
    <_>
      <rects>
        <_>
          2 3 18 14 -1.</_>
        <_>
          8 3 6 14 3.</_></rects>
      <tilted>0</tilted></_>
    <_>
      <rects>
        <_>
          2 5 8 10 -1.</_>
        <_>
          6 5 4 10 2.</_></rects>
      <tilted>0</tilted></_>
    <_>
      <rects>
        <_>
          3 0 15 6 -1.</_>
        <_>
          3 2 15 2 3.</_></rects>
      <tilted>0</tilted></_>
    <_>
      <rects>
        <_>
          3 15 15 2 -1.</_>
        <_>
          8 15 5 2 3.</_></rects>
      <tilted>0</tilted></_>
    <_>
      <rects>
        <_>
          4 1 12 3 -1.</_>
        <_>
          4 2 12 1 3.</_></rects>
      <tilted>0</tilted></_>
    <_>
      <rects>
        <_>
          4 5 10 6 -1.</_>
        <_>
          9 5 5 6 2.</_></rects>
      <tilted>0</tilted></_>
    <_>
      <rects>
        <_>
          4 18 16 2 -1.</_>
        <_>
          4 19 16 1 2.</_></rects>
      <tilted>0</tilted></_>
    <_>
      <rects>
        <_>
          5 6 10 6 -1.</_>
        <_>
          10 6 5 6 2.</_></rects>
      <tilted>0</tilted></_>
    <_>
      <rects>
        <_>
          5 7 11 6 -1.</_>
        <_>
          5 9 11 2 3.</_></rects>
      <tilted>0</tilted></_>
    <_>
      <rects>
        <_>
          5 8 12 4 -1.</_>
        <_>
          11 8 6 4 2.</_></rects>
      <tilted>0</tilted></_>
    <_>
      <rects>
        <_>
          5 13 11 6 -1.</_>
        <_>
          5 16 11 3 2.</_></rects>
      <tilted>0</tilted></_>
    <_>
      <rects>
        <_>
          5 18 13 2 -1.</_>
        <_>
          5 19 13 1 2.</_></rects>
      <tilted>0</tilted></_>
    <_>
      <rects>
        <_>
          6 7 8 7 -1.</_>
        <_>
          10 7 4 7 2.</_></rects>
      <tilted>0</tilted></_>
    <_>
      <rects>
        <_>
          6 15 8 4 -1.</_>
        <_>
          6 17 8 2 2.</_></rects>
      <tilted>0</tilted></_>
    <_>
      <rects>
        <_>
          7 3 8 16 -1.</_>
        <_>
          7 11 8 8 2.</_></rects>
      <tilted>0</tilted></_>
    <_>
      <rects>
        <_>
          7 8 4 3 -1.</_>
        <_>
          9 8 2 3 2.</_></rects>
      <tilted>0</tilted></_>
    <_>
      <rects>
        <_>
          8 8 4 8 -1.</_>
        <_>
          8 12 4 4 2.</_></rects>
      <tilted>0</tilted></_>
    <_>
      <rects>
        <_>
          12 6 3 8 -1.</_>
        <_>
          12 10 3 4 2.</_></rects>
      <tilted>0</tilted></_>
    <_>
      <rects>
        <_>
          13 6 6 11 -1.</_>
        <_>
          16 6 3 11 2.</_></rects>
      <tilted>0</tilted></_>
    <_>
      <rects>
        <_>
          14 1 3 18 -1.</_>
        <_>
          14 7 3 6 3.</_></rects>
      <tilted>0</tilted></_>
    <_>
      <rects>
        <_>
          15 3 4 11 -1.</_>
        <_>
          17 3 2 11 2.</_></rects>
      <tilted>0</tilted></_>
    <_>
      <rects>
        <_>
          18 6 2 8 -1.</_>
        <_>
          19 6 1 8 2.</_></rects>
      <tilted>0</tilted></_></features></cascade>
</opencv_storage>
