<?xml version="1.0"?>
<opencv_storage>
<stage1>
  <maxWeakCount>5</maxWeakCount>
  <stageThreshold>-9.2121666669845581e-01</stageThreshold>
  <weakClassifiers>
    <_>
      <internalNodes>
        0 -1 39309 3.4527827054262161e-02</internalNodes>
      <leafValues>
        -7.2053462266921997e-01 7.9541820287704468e-01</leafValues></_>
    <_>
      <internalNodes>
        0 -1 38009 -6.9649750366806984e-03</internalNodes>
      <leafValues>
        5.2530145645141602e-01 -9.7382825613021851e-01</leafValues></_>
    <_>
      <internalNodes>
        0 -1 39840 -1.4936607331037521e-02</internalNodes>
      <leafValues>
        7.0323944091796875e-01 -6.1338722705841064e-01</leafValues></_>
    <_>
      <internalNodes>
        0 -1 70092 2.1105790510773659e-02</internalNodes>
      <leafValues>
        -7.2480386495590210e-01 6.1797088384628296e-01</leafValues></_>
    <_>
      <internalNodes>
        0 -1 2827 4.3884083628654480e-02</internalNodes>
      <leafValues>
        -6.2367564439773560e-01 6.1220753192901611e-01</leafValues></_></weakClassifiers></stage1>
</opencv_storage>
